<PMML version="4.2" 
  xmlns="http://www.dmg.org/PMML-4_2" 
  xmlns:xsi="http://www.w3.org/2001/XMLSchema-instance" xsi:schemaLocation="http://www.dmg.org/PMML-4_2 http://www.dmg.org/v4-2/pmml-4-2.xsd">
  <Header copyright="Copyright (c) 2016" description="CVDPoRTMale_v0.8">
    <Extension name="user" value="user" extender="COXPH"/>
    <Application name="COXPH" version="1.4"/>
    <Timestamp>2016-08-30 11:53:28</Timestamp>
  </Header>
  <DataDictionary numberOfFields="40">
    <DataField name="survival" optype="continuous" dataType="double"/>
    <DataField name="Age_rcs1" optype="continuous" dataType="double"/>
    <DataField name="Age_rcs2" optype="continuous" dataType="double"/>
    <DataField name="Age_rcs3" optype="continuous" dataType="double"/>
    <DataField name="Age_rcs4" optype="continuous" dataType="double"/>
    <DataField name="Packyears_rcs1" optype="continuous" dataType="double"/>
    <DataField name="Packyears_rcs2" optype="continuous" dataType="double"/>
    <DataField name="SmokeFormer5plus_cat" optype="continuous" dataType="double"/>
    <DataField name="SmokeFormer0to5_cat" optype="continuous" dataType="double"/>
    <DataField name="SmokeCurrent_cat" optype="continuous" dataType="double"/>
    <DataField name="AgeXPackyears_int" optype="continuous" dataType="double"/>
    <DataField name="AgeXSmokeFormer5plus_int" optype="continuous" dataType="double"/>
    <DataField name="AgeXSmokeFormer0to5_int" optype="continuous" dataType="double"/>
    <DataField name="AgeXSmokeCurrent_int" optype="continuous" dataType="double"/>
    <DataField name="DrinksLastWeek_rcs1" optype="continuous" dataType="double"/>
    <DataField name="DrinksLastWeek_rcs2" optype="continuous" dataType="double"/>
    <DataField name="AgeXDrinksLastWeek_int" optype="continuous" dataType="double"/>
    <DataField name="FruitVeg_rcs1" optype="continuous" dataType="double"/>
    <DataField name="FruitVeg_rcs2" optype="continuous" dataType="double"/>
    <DataField name="Potato_rcs1" optype="continuous" dataType="double"/>
    <DataField name="Potato_rcs2" optype="continuous" dataType="double"/>
    <DataField name="Juice_cont" optype="continuous" dataType="double"/>
    <DataField name="AgeXFruitVeg_int" optype="continuous" dataType="double"/>
    <DataField name="AgeXPotato_int" optype="continuous" dataType="double"/>
    <DataField name="AgeXJuice_int" optype="continuous" dataType="double"/>
    <DataField name="BMI_rcs1" optype="continuous" dataType="double"/>
    <DataField name="BMI_rcs2" optype="continuous" dataType="double"/>
    <DataField name="EduHSGrad2_cat" optype="continuous" dataType="double"/>
    <DataField name="EduSomePS2_cat" optype="continuous" dataType="double"/>
    <DataField name="EduPSGrad2_cat" optype="continuous" dataType="double"/>
    <DataField name="AgeXBMI_int" optype="continuous" dataType="double"/>
    <DataField name="Diabetes_cat" optype="continuous" dataType="double"/>
    <DataField name="AgeXDiabetes_int" optype="continuous" dataType="double"/>
    <DataField name="Hypertension_cat" optype="continuous" dataType="double"/>
    <DataField name="AgeXHypertension_int" optype="continuous" dataType="double"/>
    <DataField name="SurveyCycle2_cat" optype="continuous" dataType="double"/>
    <DataField name="SurveyCycle3_cat" optype="continuous" dataType="double"/>
    <DataField name="SurveyCycle4_cat" optype="continuous" dataType="double"/>
    <DataField name="ttcvd_dec12_year" optype="continuous" dataType="double"/>
    <DataField name="censor_cvd_dec12" optype="continuous" dataType="double"/>
  </DataDictionary>
  <LocalTransformations>
    <DerivedField name="Age_xc" dataType="double" optype="continuous">
      <FieldRef field="age"/>
    </DerivedField>
    <DerivedField name="Age_rcs1" dataType="double" optype="continuous">
      <Apply function="-">
        <FieldRef field="Age_xc"/>
        <Constant dataType="double">47.9806491224365</Constant>
      </Apply>
    </DerivedField>
    <DerivedField name="edumissing" dataType="double" optype="continuous">
      <Apply function="if">
        <Apply function="or">
          <Apply function="or">
            <Apply function="is.na">
              <FieldRef field="hs"/>
            </Apply>
            <Apply function="and">
              <Apply function="equal">
                <FieldRef field="hs"/>
                <Constant dataType="string">hs1</Constant>
              </Apply>
              <Apply function="is.na">
                <FieldRef field="ed"/>
              </Apply>
            </Apply>
          </Apply>
          <Apply function="and">
            <Apply function="and">
              <Apply function="equal">
                <FieldRef field="hs"/>
                <Constant dataType="string">hs1</Constant>
              </Apply>
              <Apply function="equal">
                <FieldRef field="ed"/>
                <Constant dataType="string">ed1</Constant>
              </Apply>
            </Apply>
            <Apply function="is.na">
              <FieldRef field="hdg"/>
            </Apply>
          </Apply>
        </Apply>
        <Constant dataType="double">1</Constant>
        <Constant dataType="double">0</Constant>
      </Apply>
    </DerivedField>
    <DerivedField name="EduHSGrad2_xc" dataType="double" optype="continuous">
      <Apply function="if">
        <Apply function="equal">
          <FieldRef field="edumissing"/>
          <Constant dataType="double">1</Constant>
        </Apply>
        <FieldRef field="NA"/>
        <Apply function="if">
          <Apply function="or">
            <Apply function="and">
              <Apply function="equal">
                <FieldRef field="hs"/>
                <Constant dataType="string">hs1</Constant>
              </Apply>
              <Apply function="equal">
                <FieldRef field="ed"/>
                <Constant dataType="string">ed2</Constant>
              </Apply>
            </Apply>
            <Apply function="and">
              <Apply function="and">
                <Apply function="equal">
                  <FieldRef field="hs"/>
                  <Constant dataType="string">hs1</Constant>
                </Apply>
                <Apply function="equal">
                  <FieldRef field="ed"/>
                  <Constant dataType="string">ed1</Constant>
                </Apply>
              </Apply>
              <Apply function="equal">
                <FieldRef field="hdg"/>
                <Constant dataType="string">hdg1</Constant>
              </Apply>
            </Apply>
          </Apply>
          <Constant dataType="double">1</Constant>
          <Constant dataType="double">0</Constant>
        </Apply>
      </Apply>
    </DerivedField>
    <DerivedField name="EduSomePS2_xc" dataType="double" optype="continuous">
      <Apply function="if">
        <Apply function="equal">
          <FieldRef field="edumissing"/>
          <Constant dataType="double">1</Constant>
        </Apply>
        <FieldRef field="NA"/>
        <Apply function="if">
          <Apply function="and">
            <Apply function="and">
              <Apply function="equal">
                <FieldRef field="hs"/>
                <Constant dataType="string">hs1</Constant>
              </Apply>
              <Apply function="equal">
                <FieldRef field="ed"/>
                <Constant dataType="string">ed1</Constant>
              </Apply>
            </Apply>
            <Apply function="equal">
              <FieldRef field="hdg"/>
              <Constant dataType="string">hdg1</Constant>
            </Apply>
          </Apply>
          <Constant dataType="double">1</Constant>
          <Constant dataType="double">0</Constant>
        </Apply>
      </Apply>
    </DerivedField>
    <DerivedField name="EduPSGrad2_xc" dataType="double" optype="continuous">
      <Apply function="if">
        <Apply function="equal">
          <FieldRef field="edumissing"/>
          <Constant dataType="double">1</Constant>
        </Apply>
        <FieldRef field="NA"/>
        <Apply function="if">
          <Apply function="and">
            <Apply function="and">
              <Apply function="equal">
                <FieldRef field="hs"/>
                <Constant dataType="string">hs1</Constant>
              </Apply>
              <Apply function="equal">
                <FieldRef field="ed"/>
                <Constant dataType="string">ed1</Constant>
              </Apply>
            </Apply>
            <Apply function="notEqual">
              <FieldRef field="hdg"/>
              <Constant dataType="string">hdg1</Constant>
            </Apply>
          </Apply>
          <Constant dataType="double">1</Constant>
          <Constant dataType="double">0</Constant>
        </Apply>
      </Apply>
    </DerivedField>
    <DerivedField name="EduHSGrad2_cat" dataType="double" optype="continuous">
      <Apply function="-">
        <FieldRef field="EduHSGrad2_xc"/>
        <Constant dataType="double">0.182393665445769</Constant>
      </Apply>
    </DerivedField>
    <DerivedField name="EduSomePS2_cat" dataType="double" optype="continuous">
      <Apply function="-">
        <FieldRef field="EduSomePS2_xc"/>
        <Constant dataType="double">0.0737619884402854</Constant>
      </Apply>
    </DerivedField>
    <DerivedField name="EduPSGrad2_cat" dataType="double" optype="continuous">
      <Apply function="-">
        <FieldRef field="EduPSGrad2_xc"/>
        <Constant dataType="double">0.556454173988525</Constant>
      </Apply>
    </DerivedField>
    <DerivedField name="missingsmoking1" dataType="double" optype="continuous">
      <Apply function="if">
        <Apply function="or">
          <Apply function="or">
            <Apply function="is.na">
              <FieldRef field="smk"/>
            </Apply>
            <Apply function="and">
              <Apply function="or">
                <Apply function="equal">
                  <FieldRef field="smk"/>
                  <Constant dataType="string">smk2</Constant>
                </Apply>
                <Apply function="equal">
                  <FieldRef field="smk"/>
                  <Constant dataType="string">smk3</Constant>
                </Apply>
              </Apply>
              <Apply function="is.na">
                <FieldRef field="evd"/>
              </Apply>
            </Apply>
          </Apply>
          <Apply function="and">
            <Apply function="and">
              <Apply function="equal">
                <FieldRef field="smk"/>
                <Constant dataType="string">smk3</Constant>
              </Apply>
              <Apply function="equal">
                <FieldRef field="evd"/>
                <Constant dataType="string">evd2</Constant>
              </Apply>
            </Apply>
            <Apply function="or">
              <Apply function="is.na">
                <FieldRef field="s100"/>
              </Apply>
              <Apply function="is.na">
                <FieldRef field="wcig"/>
              </Apply>
            </Apply>
          </Apply>
        </Apply>
        <Constant dataType="double">1</Constant>
        <Constant dataType="double">0</Constant>
      </Apply>
    </DerivedField>
    <DerivedField name="DailySmoker" dataType="double" optype="continuous">
      <Apply function="if">
        <Apply function="equal">
          <FieldRef field="missingsmoking1"/>
          <Constant dataType="double">1</Constant>
        </Apply>
        <FieldRef field="NA"/>
        <Apply function="if">
          <Apply function="equal">
            <FieldRef field="smk"/>
            <Constant dataType="string">smk1</Constant>
          </Apply>
          <Constant dataType="double">1</Constant>
          <Constant dataType="double">0</Constant>
        </Apply>
      </Apply>
    </DerivedField>
    <DerivedField name="FormerDailyCurrentOccasional" dataType="double" optype="continuous">
      <Apply function="if">
        <Apply function="equal">
          <FieldRef field="missingsmoking1"/>
          <Constant dataType="double">1</Constant>
        </Apply>
        <FieldRef field="NA"/>
        <Apply function="if">
          <Apply function="and">
            <Apply function="equal">
              <FieldRef field="smk"/>
              <Constant dataType="string">smk2</Constant>
            </Apply>
            <Apply function="equal">
              <FieldRef field="evd"/>
              <Constant dataType="string">evd1</Constant>
            </Apply>
          </Apply>
          <Constant dataType="double">1</Constant>
          <Constant dataType="double">0</Constant>
        </Apply>
      </Apply>
    </DerivedField>
    <DerivedField name="NeverDailyCurrentOccasional" dataType="double" optype="continuous">
      <Apply function="if">
        <Apply function="equal">
          <FieldRef field="missingsmoking1"/>
          <Constant dataType="double">1</Constant>
        </Apply>
        <FieldRef field="NA"/>
        <Apply function="if">
          <Apply function="and">
            <Apply function="equal">
              <FieldRef field="smk"/>
              <Constant dataType="string">smk2</Constant>
            </Apply>
            <Apply function="equal">
              <FieldRef field="evd"/>
              <Constant dataType="string">evd2</Constant>
            </Apply>
          </Apply>
          <Constant dataType="double">1</Constant>
          <Constant dataType="double">0</Constant>
        </Apply>
      </Apply>
    </DerivedField>
    <DerivedField name="FormerDailyCurrentNon" dataType="double" optype="continuous">
      <Apply function="if">
        <Apply function="equal">
          <FieldRef field="missingsmoking1"/>
          <Constant dataType="double">1</Constant>
        </Apply>
        <FieldRef field="NA"/>
        <Apply function="if">
          <Apply function="and">
            <Apply function="equal">
              <FieldRef field="smk"/>
              <Constant dataType="string">smk3</Constant>
            </Apply>
            <Apply function="equal">
              <FieldRef field="evd"/>
              <Constant dataType="string">evd1</Constant>
            </Apply>
          </Apply>
          <Constant dataType="double">1</Constant>
          <Constant dataType="double">0</Constant>
        </Apply>
      </Apply>
    </DerivedField>
    <DerivedField name="FormerOccasionalCurrentNon" dataType="double" optype="continuous">
      <Apply function="if">
        <Apply function="equal">
          <FieldRef field="missingsmoking1"/>
          <Constant dataType="double">1</Constant>
        </Apply>
        <FieldRef field="NA"/>
        <Apply function="if">
          <Apply function="and">
            <Apply function="equal">
              <FieldRef field="smk"/>
              <Constant dataType="string">smk3</Constant>
            </Apply>
            <Apply function="and">
              <Apply function="equal">
                <FieldRef field="evd"/>
                <Constant dataType="string">evd2</Constant>
              </Apply>
              <Apply function="or">
                <Apply function="equal">
                  <FieldRef field="s100"/>
                  <Constant dataType="string">s1001</Constant>
                </Apply>
                <Apply function="equal">
                  <FieldRef field="wcig"/>
                  <Constant dataType="string">wcig1</Constant>
                </Apply>
              </Apply>
            </Apply>
          </Apply>
          <Constant dataType="double">1</Constant>
          <Constant dataType="double">0</Constant>
        </Apply>
      </Apply>
    </DerivedField>
    <DerivedField name="NeverSmoked" dataType="double" optype="continuous">
      <Apply function="if">
        <Apply function="equal">
          <FieldRef field="missingsmoking1"/>
          <Constant dataType="double">1</Constant>
        </Apply>
        <FieldRef field="NA"/>
        <Apply function="if">
          <Apply function="or">
            <Apply function="and">
              <Apply function="equal">
                <FieldRef field="smk"/>
                <Constant dataType="string">smk3</Constant>
              </Apply>
              <Apply function="equal">
                <FieldRef field="s100"/>
                <Constant dataType="string">s1002</Constant>
              </Apply>
            </Apply>
            <Apply function="equal">
              <FieldRef field="wcig"/>
              <Constant dataType="string">wcig2</Constant>
            </Apply>
          </Apply>
          <Constant dataType="double">1</Constant>
          <Constant dataType="double">0</Constant>
        </Apply>
      </Apply>
    </DerivedField>
    <DerivedField name="TypeOfSmoker" dataType="double" optype="continuous">
      <Apply function="if">
        <Apply function="equal">
          <FieldRef field="missingsmoking1"/>
          <Constant dataType="double">1</Constant>
        </Apply>
        <FieldRef field="NA"/>
        <Apply function="if">
          <Apply function="equal">
            <FieldRef field="DailySmoker"/>
            <Constant dataType="double">1</Constant>
          </Apply>
          <Constant dataType="double">1</Constant>
          <Apply function="if">
            <Apply function="equal">
              <FieldRef field="FormerDailyCurrentOccasional"/>
              <Constant dataType="double">1</Constant>
            </Apply>
            <Constant dataType="double">2</Constant>
            <Apply function="if">
              <Apply function="equal">
                <FieldRef field="NeverDailyCurrentOccasional"/>
                <Constant dataType="double">1</Constant>
              </Apply>
              <Constant dataType="double">3</Constant>
              <Apply function="if">
                <Apply function="equal">
                  <FieldRef field="FormerDailyCurrentNon"/>
                  <Constant dataType="double">1</Constant>
                </Apply>
                <Constant dataType="double">4</Constant>
                <Apply function="if">
                  <Apply function="equal">
                    <FieldRef field="FormerOccasionalCurrentNon"/>
                    <Constant dataType="double">1</Constant>
                  </Apply>
                  <Constant dataType="double">5</Constant>
                  <Apply function="if">
                    <Apply function="equal">
                      <FieldRef field="NeverSmoked"/>
                      <Constant dataType="double">1</Constant>
                    </Apply>
                    <Constant dataType="double">6</Constant>
                    <FieldRef field="NA"/>
                  </Apply>
                </Apply>
              </Apply>
            </Apply>
          </Apply>
        </Apply>
      </Apply>
    </DerivedField>
    <DerivedField name="tsq_ds" dataType="double" optype="continuous">
      <Apply function="if">
        <Apply function="or">
          <Apply function="equal">
            <FieldRef field="missingsmoking1"/>
            <Constant dataType="double">1</Constant>
          </Apply>
          <Apply function="or">
            <Apply function="and">
              <Apply function="or">
                <Apply function="equal">
                  <FieldRef field="TypeOfSmoker"/>
                  <Constant dataType="double">2</Constant>
                </Apply>
                <Apply function="equal">
                  <FieldRef field="TypeOfSmoker"/>
                  <Constant dataType="double">4</Constant>
                </Apply>
              </Apply>
              <Apply function="is.na">
                <FieldRef field="evd"/>
              </Apply>
            </Apply>
            <Apply function="or">
              <Apply function="is.na">
                <FieldRef field="stpo"/>
              </Apply>
              <Apply function="and">
                <Apply function="equal">
                  <FieldRef field="stpo"/>
                  <Constant dataType="string">stpo4</Constant>
                </Apply>
                <Apply function="is.na">
                  <FieldRef field="stpoy"/>
                </Apply>
              </Apply>
            </Apply>
          </Apply>
        </Apply>
        <FieldRef field="NA"/>
        <Apply function="if">
          <Apply function="equal">
            <FieldRef field="stpo"/>
            <Constant dataType="string">stpo1</Constant>
          </Apply>
          <Constant dataType="double">0.5</Constant>
          <Apply function="if">
            <Apply function="equal">
              <FieldRef field="stpo"/>
              <Constant dataType="string">stpo2</Constant>
            </Apply>
            <Constant dataType="double">1.5</Constant>
            <Apply function="if">
              <Apply function="equal">
                <FieldRef field="stpo"/>
                <Constant dataType="string">stpo3</Constant>
              </Apply>
              <Constant dataType="double">2.5</Constant>
              <Apply function="if">
                <Apply function="equal">
                  <FieldRef field="stpo"/>
                  <Constant dataType="string">stpo4</Constant>
                </Apply>
                <FieldRef field="stpoy"/>
                <FieldRef field="NA"/>
              </Apply>
            </Apply>
          </Apply>
        </Apply>
      </Apply>
    </DerivedField>
    <DerivedField name="missingsmoking2" dataType="double" optype="continuous">
      <Apply function="if">
        <Apply function="equal">
          <FieldRef field="missingsmoking1"/>
          <Constant dataType="double">1</Constant>
        </Apply>
        <Constant dataType="double">1</Constant>
        <Apply function="if">
          <Apply function="and">
            <Apply function="or">
              <Apply function="or">
                <Apply function="or">
                  <Apply function="equal">
                    <FieldRef field="TypeOfSmoker"/>
                    <Constant dataType="double">1</Constant>
                  </Apply>
                  <Apply function="equal">
                    <FieldRef field="TypeOfSmoker"/>
                    <Constant dataType="double">2</Constant>
                  </Apply>
                </Apply>
                <Apply function="equal">
                  <FieldRef field="TypeOfSmoker"/>
                  <Constant dataType="double">3</Constant>
                </Apply>
              </Apply>
              <Apply function="equal">
                <FieldRef field="TypeOfSmoker"/>
                <Constant dataType="double">4</Constant>
              </Apply>
            </Apply>
            <Apply function="is.na">
              <FieldRef field="age"/>
            </Apply>
          </Apply>
          <Constant dataType="double">1</Constant>
          <Apply function="if">
            <Apply function="and">
              <Apply function="or">
                <Apply function="or">
                  <Apply function="equal">
                    <FieldRef field="TypeOfSmoker"/>
                    <Constant dataType="double">1</Constant>
                  </Apply>
                  <Apply function="equal">
                    <FieldRef field="TypeOfSmoker"/>
                    <Constant dataType="double">2</Constant>
                  </Apply>
                </Apply>
                <Apply function="equal">
                  <FieldRef field="TypeOfSmoker"/>
                  <Constant dataType="double">4</Constant>
                </Apply>
              </Apply>
              <Apply function="is.na">
                <FieldRef field="agecigd"/>
              </Apply>
            </Apply>
            <Constant dataType="double">1</Constant>
            <Apply function="if">
              <Apply function="and">
                <Apply function="equal">
                  <FieldRef field="TypeOfSmoker"/>
                  <Constant dataType="double">1</Constant>
                </Apply>
                <Apply function="is.na">
                  <FieldRef field="cigdayd"/>
                </Apply>
              </Apply>
              <Constant dataType="double">1</Constant>
              <Apply function="if">
                <Apply function="and">
                  <Apply function="or">
                    <Apply function="or">
                      <Apply function="equal">
                        <FieldRef field="TypeOfSmoker"/>
                        <Constant dataType="double">2</Constant>
                      </Apply>
                      <Apply function="equal">
                        <FieldRef field="TypeOfSmoker"/>
                        <Constant dataType="double">4</Constant>
                      </Apply>
                    </Apply>
                    <Apply function="equal">
                      <FieldRef field="TypeOfSmoker"/>
                      <Constant dataType="double">5</Constant>
                    </Apply>
                  </Apply>
                  <Apply function="is.na">
                    <FieldRef field="tsq_ds"/>
                  </Apply>
                </Apply>
                <Constant dataType="double">1</Constant>
                <Apply function="if">
                  <Apply function="and">
                    <Apply function="or">
                      <Apply function="equal">
                        <FieldRef field="TypeOfSmoker"/>
                        <Constant dataType="double">2</Constant>
                      </Apply>
                      <Apply function="equal">
                        <FieldRef field="TypeOfSmoker"/>
                        <Constant dataType="double">4</Constant>
                      </Apply>
                    </Apply>
                    <Apply function="is.na">
                      <FieldRef field="cigdayf"/>
                    </Apply>
                  </Apply>
                  <Constant dataType="double">1</Constant>
                  <Apply function="if">
                    <Apply function="and">
                      <Apply function="or">
                        <Apply function="equal">
                          <FieldRef field="TypeOfSmoker"/>
                          <Constant dataType="double">2</Constant>
                        </Apply>
                        <Apply function="equal">
                          <FieldRef field="TypeOfSmoker"/>
                          <Constant dataType="double">3</Constant>
                        </Apply>
                      </Apply>
                      <Apply function="or">
                        <Apply function="is.na">
                          <FieldRef field="cigdayo"/>
                        </Apply>
                        <Apply function="is.na">
                          <FieldRef field="dayocc"/>
                        </Apply>
                      </Apply>
                    </Apply>
                    <Constant dataType="double">1</Constant>
                    <Apply function="if">
                      <Apply function="and">
                        <Apply function="equal">
                          <FieldRef field="TypeOfSmoker"/>
                          <Constant dataType="double">3</Constant>
                        </Apply>
                        <Apply function="is.na">
                          <FieldRef field="agec1"/>
                        </Apply>
                      </Apply>
                      <Constant dataType="double">1</Constant>
                      <Constant dataType="double">0</Constant>
                    </Apply>
                  </Apply>
                </Apply>
              </Apply>
            </Apply>
          </Apply>
        </Apply>
      </Apply>
    </DerivedField>
    <DerivedField name="Packyears_x" dataType="double" optype="continuous">
      <Apply function="if">
        <Apply function="equal">
          <FieldRef field="missingsmoking2"/>
          <Constant dataType="double">1</Constant>
        </Apply>
        <FieldRef field="NA"/>
        <Apply function="if">
          <Apply function="equal">
            <FieldRef field="TypeOfSmoker"/>
            <Constant dataType="double">1</Constant>
          </Apply>
          <Apply function="max">
            <Apply function="*">
              <Apply function="-">
                <FieldRef field="age"/>
                <FieldRef field="agecigd"/>
              </Apply>
              <Apply function="/">
                <FieldRef field="cigdayd"/>
                <Constant dataType="double">20</Constant>
              </Apply>
            </Apply>
            <Constant dataType="double">0.0137</Constant>
          </Apply>
          <Apply function="if">
            <Apply function="equal">
              <FieldRef field="TypeOfSmoker"/>
              <Constant dataType="double">2</Constant>
            </Apply>
            <Apply function="+">
              <Apply function="max">
                <Apply function="*">
                  <Apply function="-">
                    <Apply function="-">
                      <FieldRef field="age"/>
                      <FieldRef field="agecigd"/>
                    </Apply>
                    <FieldRef field="tsq_ds"/>
                  </Apply>
                  <Apply function="/">
                    <FieldRef field="cigdayf"/>
                    <Constant dataType="double">20</Constant>
                  </Apply>
                </Apply>
                <Constant dataType="double">0.0137</Constant>
              </Apply>
              <Apply function="*">
                <Apply function="/">
                  <Apply function="max">
                    <Apply function="/">
                      <Apply function="*">
                        <FieldRef field="cigdayo"/>
                        <FieldRef field="dayocc"/>
                      </Apply>
                      <Constant dataType="double">30</Constant>
                    </Apply>
                    <Constant dataType="double">1</Constant>
                  </Apply>
                  <Constant dataType="double">20</Constant>
                </Apply>
                <FieldRef field="tsq_ds"/>
              </Apply>
            </Apply>
            <Apply function="if">
              <Apply function="equal">
                <FieldRef field="TypeOfSmoker"/>
                <Constant dataType="double">3</Constant>
              </Apply>
              <Apply function="*">
                <Apply function="/">
                  <Apply function="max">
                    <Apply function="/">
                      <Apply function="*">
                        <FieldRef field="cigdayo"/>
                        <FieldRef field="dayocc"/>
                      </Apply>
                      <Constant dataType="double">30</Constant>
                    </Apply>
                    <Constant dataType="double">1</Constant>
                  </Apply>
                  <Constant dataType="double">20</Constant>
                </Apply>
                <Apply function="-">
                  <FieldRef field="age"/>
                  <FieldRef field="agec1"/>
                </Apply>
              </Apply>
              <Apply function="if">
                <Apply function="equal">
                  <FieldRef field="TypeOfSmoker"/>
                  <Constant dataType="double">4</Constant>
                </Apply>
                <Apply function="max">
                  <Apply function="*">
                    <Apply function="-">
                      <Apply function="-">
                        <FieldRef field="age"/>
                        <FieldRef field="agecigd"/>
                      </Apply>
                      <FieldRef field="tsq_ds"/>
                    </Apply>
                    <Apply function="/">
                      <FieldRef field="cigdayf"/>
                      <Constant dataType="double">20</Constant>
                    </Apply>
                  </Apply>
                  <Constant dataType="double">0.0137</Constant>
                </Apply>
                <Apply function="if">
                  <Apply function="and">
                    <Apply function="equal">
                      <FieldRef field="TypeOfSmoker"/>
                      <Constant dataType="double">5</Constant>
                    </Apply>
                    <Apply function="equal">
                      <FieldRef field="s100"/>
                      <Constant dataType="string">s1001</Constant>
                    </Apply>
                  </Apply>
                  <Constant dataType="double">0.0137</Constant>
                  <Apply function="if">
                    <Apply function="and">
                      <Apply function="equal">
                        <FieldRef field="TypeOfSmoker"/>
                        <Constant dataType="double">5</Constant>
                      </Apply>
                      <Apply function="equal">
                        <FieldRef field="s100"/>
                        <Constant dataType="string">s1002</Constant>
                      </Apply>
                    </Apply>
                    <Constant dataType="double">0.007</Constant>
                    <Apply function="if">
                      <Apply function="equal">
                        <FieldRef field="TypeOfSmoker"/>
                        <Constant dataType="double">6</Constant>
                      </Apply>
                      <Constant dataType="double">0</Constant>
                      <FieldRef field="NA"/>
                    </Apply>
                  </Apply>
                </Apply>
              </Apply>
            </Apply>
          </Apply>
        </Apply>
      </Apply>
    </DerivedField>
    <DerivedField name="smoker" dataType="double" optype="continuous">
      <Apply function="if">
        <Apply function="equal">
          <FieldRef field="missingsmoking1"/>
          <Constant dataType="double">1</Constant>
        </Apply>
        <FieldRef field="NA"/>
        <Apply function="if">
          <Apply function="or">
            <Apply function="or">
              <Apply function="equal">
                <FieldRef field="TypeOfSmoker"/>
                <Constant dataType="double">1</Constant>
              </Apply>
              <Apply function="equal">
                <FieldRef field="TypeOfSmoker"/>
                <Constant dataType="double">2</Constant>
              </Apply>
            </Apply>
            <Apply function="equal">
              <FieldRef field="TypeOfSmoker"/>
              <Constant dataType="double">3</Constant>
            </Apply>
          </Apply>
          <Constant dataType="double">1</Constant>
          <Apply function="if">
            <Apply function="or">
              <Apply function="or">
                <Apply function="equal">
                  <FieldRef field="TypeOfSmoker"/>
                  <Constant dataType="double">4</Constant>
                </Apply>
                <Apply function="equal">
                  <FieldRef field="TypeOfSmoker"/>
                  <Constant dataType="double">5</Constant>
                </Apply>
              </Apply>
              <Apply function="equal">
                <FieldRef field="TypeOfSmoker"/>
                <Constant dataType="double">6</Constant>
              </Apply>
            </Apply>
            <Constant dataType="double">0</Constant>
            <FieldRef field="NA"/>
          </Apply>
        </Apply>
      </Apply>
    </DerivedField>
    <DerivedField name="eversmoker" dataType="double" optype="continuous">
      <Apply function="if">
        <Apply function="equal">
          <FieldRef field="missingsmoking1"/>
          <Constant dataType="double">1</Constant>
        </Apply>
        <FieldRef field="NA"/>
        <Apply function="if">
          <Apply function="or">
            <Apply function="or">
              <Apply function="or">
                <Apply function="or">
                  <Apply function="equal">
                    <FieldRef field="TypeOfSmoker"/>
                    <Constant dataType="double">1</Constant>
                  </Apply>
                  <Apply function="equal">
                    <FieldRef field="TypeOfSmoker"/>
                    <Constant dataType="double">2</Constant>
                  </Apply>
                </Apply>
                <Apply function="equal">
                  <FieldRef field="TypeOfSmoker"/>
                  <Constant dataType="double">3</Constant>
                </Apply>
              </Apply>
              <Apply function="equal">
                <FieldRef field="TypeOfSmoker"/>
                <Constant dataType="double">4</Constant>
              </Apply>
            </Apply>
            <Apply function="equal">
              <FieldRef field="TypeOfSmoker"/>
              <Constant dataType="double">5</Constant>
            </Apply>
          </Apply>
          <Constant dataType="double">1</Constant>
          <Apply function="if">
            <Apply function="equal">
              <FieldRef field="TypeOfSmoker"/>
              <Constant dataType="double">6</Constant>
            </Apply>
            <Constant dataType="double">0</Constant>
            <FieldRef field="NA"/>
          </Apply>
        </Apply>
      </Apply>
    </DerivedField>
    <DerivedField name="SmokeFormer5Plus_xc" dataType="double" optype="continuous">
      <Apply function="if">
        <Apply function="equal">
          <FieldRef field="missingsmoking2"/>
          <Constant dataType="double">1</Constant>
        </Apply>
        <FieldRef field="NA"/>
        <Apply function="if">
          <Apply function="and">
            <Apply function="and">
              <Apply function="equal">
                <FieldRef field="smoker"/>
                <Constant dataType="double">0</Constant>
              </Apply>
              <Apply function="equal">
                <FieldRef field="eversmoker"/>
                <Constant dataType="double">1</Constant>
              </Apply>
            </Apply>
            <Apply function="greaterOrEqual">
              <FieldRef field="tsq_ds"/>
              <Constant dataType="double">5</Constant>
            </Apply>
          </Apply>
          <Constant dataType="double">1</Constant>
          <Constant dataType="double">0</Constant>
        </Apply>
      </Apply>
    </DerivedField>
    <DerivedField name="SmokeFormer0to5_xc" dataType="double" optype="continuous">
      <Apply function="if">
        <Apply function="equal">
          <FieldRef field="missingsmoking2"/>
          <Constant dataType="double">1</Constant>
        </Apply>
        <FieldRef field="NA"/>
        <Apply function="if">
          <Apply function="and">
            <Apply function="and">
              <Apply function="equal">
                <FieldRef field="smoker"/>
                <Constant dataType="double">0</Constant>
              </Apply>
              <Apply function="equal">
                <FieldRef field="eversmoker"/>
                <Constant dataType="double">1</Constant>
              </Apply>
            </Apply>
            <Apply function="lessThan">
              <FieldRef field="tsq_ds"/>
              <Constant dataType="double">5</Constant>
            </Apply>
          </Apply>
          <Constant dataType="double">1</Constant>
          <Constant dataType="double">0</Constant>
        </Apply>
      </Apply>
    </DerivedField>
    <DerivedField name="SmokeCurrent_xc" dataType="double" optype="continuous">
      <Apply function="if">
        <Apply function="equal">
          <FieldRef field="missingsmoking2"/>
          <Constant dataType="double">1</Constant>
        </Apply>
        <FieldRef field="NA"/>
        <Apply function="if">
          <Apply function="and">
            <Apply function="equal">
              <FieldRef field="smoker"/>
              <Constant dataType="double">1</Constant>
            </Apply>
            <Apply function="equal">
              <FieldRef field="eversmoker"/>
              <Constant dataType="double">1</Constant>
            </Apply>
          </Apply>
          <Constant dataType="double">1</Constant>
          <Constant dataType="double">0</Constant>
        </Apply>
      </Apply>
    </DerivedField>
    <DerivedField name="Packyears_xc" dataType="double" optype="continuous">
      <Apply function="if">
        <Apply function="equal">
          <FieldRef field="missingsmoking2"/>
          <Constant dataType="double">1</Constant>
        </Apply>
        <FieldRef field="NA"/>
        <Apply function="if">
          <Apply function="greaterThan">
            <FieldRef field="Packyears_x"/>
            <Constant dataType="double">109</Constant>
          </Apply>
          <Constant dataType="double">109</Constant>
          <FieldRef field="Packyears_x"/>
        </Apply>
      </Apply>
    </DerivedField>
    <DerivedField name="Packyears_rcs1" dataType="double" optype="continuous">
      <Apply function="-">
        <FieldRef field="Packyears_xc"/>
        <Constant dataType="double">13.1871551281238</Constant>
      </Apply>
    </DerivedField>
    <DerivedField name="AgeXPackyears_int" dataType="double" optype="continuous">
      <Apply function="*">
        <FieldRef field="Age_rcs1"/>
        <FieldRef field="Packyears_rcs1"/>
      </Apply>
    </DerivedField>
    <DerivedField name="SmokeFormer5plus_cat" dataType="double" optype="continuous">
      <Apply function="-">
        <FieldRef field="SmokeFormer5Plus_xc"/>
        <Constant dataType="double">0.363051256536743</Constant>
      </Apply>
    </DerivedField>
    <DerivedField name="SmokeFormer0to5_cat" dataType="double" optype="continuous">
      <Apply function="-">
        <FieldRef field="SmokeFormer0to5_xc"/>
        <Constant dataType="double">0.104799610441852</Constant>
      </Apply>
    </DerivedField>
    <DerivedField name="SmokeCurrent_cat" dataType="double" optype="continuous">
      <Apply function="-">
        <FieldRef field="SmokeCurrent_xc"/>
        <Constant dataType="double">0.278576419029069</Constant>
      </Apply>
    </DerivedField>
    <DerivedField name="AgeXSmokeFormer5plus_int" dataType="double" optype="continuous">
      <Apply function="*">
        <FieldRef field="Age_rcs1"/>
        <FieldRef field="SmokeFormer5plus_cat"/>
      </Apply>
    </DerivedField>
    <DerivedField name="AgeXSmokeFormer0to5_int" dataType="double" optype="continuous">
      <Apply function="*">
        <FieldRef field="Age_rcs1"/>
        <FieldRef field="SmokeFormer0to5_cat"/>
      </Apply>
    </DerivedField>
    <DerivedField name="AgeXSmokeCurrent_int" dataType="double" optype="continuous">
      <Apply function="*">
        <FieldRef field="Age_rcs1"/>
        <FieldRef field="SmokeCurrent_cat"/>
      </Apply>
    </DerivedField>
    <DerivedField name="missingalcohol" dataType="double" optype="continuous">
      <Apply function="if">
        <Apply function="or">
          <Apply function="is.na">
            <FieldRef field="dany"/>
          </Apply>
          <Apply function="and">
            <Apply function="and">
              <Apply function="and">
                <Apply function="and">
                  <Apply function="and">
                    <Apply function="and">
                      <Apply function="and">
                        <Apply function="equal">
                          <FieldRef field="dany"/>
                          <Constant dataType="string">dany1</Constant>
                        </Apply>
                        <Apply function="is.na">
                          <FieldRef field="drk_drkm"/>
                        </Apply>
                      </Apply>
                      <Apply function="is.na">
                        <FieldRef field="drk_drkt"/>
                      </Apply>
                    </Apply>
                    <Apply function="is.na">
                      <FieldRef field="drk_drkw"/>
                    </Apply>
                  </Apply>
                  <Apply function="is.na">
                    <FieldRef field="drk_drkw"/>
                  </Apply>
                </Apply>
                <Apply function="is.na">
                  <FieldRef field="drk_drkr"/>
                </Apply>
              </Apply>
              <Apply function="is.na">
                <FieldRef field="drk_drksa"/>
              </Apply>
            </Apply>
            <Apply function="is.na">
              <FieldRef field="drk_drksu"/>
            </Apply>
          </Apply>
        </Apply>
        <Constant dataType="double">1</Constant>
        <Constant dataType="double">0</Constant>
      </Apply>
    </DerivedField>
    <DerivedField name="drk_drkm2" dataType="double" optype="continuous">
      <Apply function="if">
        <Apply function="equal">
          <FieldRef field="missingalcohol"/>
          <Constant dataType="double">1</Constant>
        </Apply>
        <FieldRef field="NA"/>
        <Apply function="if">
          <Apply function="is.na">
            <FieldRef field="drk_drkm"/>
          </Apply>
          <Constant dataType="double">0</Constant>
          <FieldRef field="drk_drkm"/>
        </Apply>
      </Apply>
    </DerivedField>
    <DerivedField name="drk_drkt2" dataType="double" optype="continuous">
      <Apply function="if">
        <Apply function="equal">
          <FieldRef field="missingalcohol"/>
          <Constant dataType="double">1</Constant>
        </Apply>
        <FieldRef field="NA"/>
        <Apply function="if">
          <Apply function="is.na">
            <FieldRef field="drk_drkt"/>
          </Apply>
          <Constant dataType="double">0</Constant>
          <FieldRef field="drk_drkt"/>
        </Apply>
      </Apply>
    </DerivedField>
    <DerivedField name="drk_drkw2" dataType="double" optype="continuous">
      <Apply function="if">
        <Apply function="equal">
          <FieldRef field="missingalcohol"/>
          <Constant dataType="double">1</Constant>
        </Apply>
        <FieldRef field="NA"/>
        <Apply function="if">
          <Apply function="is.na">
            <FieldRef field="drk_drkw"/>
          </Apply>
          <Constant dataType="double">0</Constant>
          <FieldRef field="drk_drkw"/>
        </Apply>
      </Apply>
    </DerivedField>
    <DerivedField name="drk_drkr2" dataType="double" optype="continuous">
      <Apply function="if">
        <Apply function="equal">
          <FieldRef field="missingalcohol"/>
          <Constant dataType="double">1</Constant>
        </Apply>
        <FieldRef field="NA"/>
        <Apply function="if">
          <Apply function="is.na">
            <FieldRef field="drk_drkr"/>
          </Apply>
          <Constant dataType="double">0</Constant>
          <FieldRef field="drk_drkr"/>
        </Apply>
      </Apply>
    </DerivedField>
    <DerivedField name="drk_drkf2" dataType="double" optype="continuous">
      <Apply function="if">
        <Apply function="equal">
          <FieldRef field="missingalcohol"/>
          <Constant dataType="double">1</Constant>
        </Apply>
        <FieldRef field="NA"/>
        <Apply function="if">
          <Apply function="is.na">
            <FieldRef field="drk_drkf"/>
          </Apply>
          <Constant dataType="double">0</Constant>
          <FieldRef field="drk_drkf"/>
        </Apply>
      </Apply>
    </DerivedField>
    <DerivedField name="drk_drksa2" dataType="double" optype="continuous">
      <Apply function="if">
        <Apply function="equal">
          <FieldRef field="missingalcohol"/>
          <Constant dataType="double">1</Constant>
        </Apply>
        <FieldRef field="NA"/>
        <Apply function="if">
          <Apply function="is.na">
            <FieldRef field="drk_drksa"/>
          </Apply>
          <Constant dataType="double">0</Constant>
          <FieldRef field="drk_drksa"/>
        </Apply>
      </Apply>
    </DerivedField>
    <DerivedField name="drk_drksu2" dataType="double" optype="continuous">
      <Apply function="if">
        <Apply function="equal">
          <FieldRef field="missingalcohol"/>
          <Constant dataType="double">1</Constant>
        </Apply>
        <FieldRef field="NA"/>
        <Apply function="if">
          <Apply function="is.na">
            <FieldRef field="drk_drksu"/>
          </Apply>
          <Constant dataType="double">0</Constant>
          <FieldRef field="drk_drksu"/>
        </Apply>
      </Apply>
    </DerivedField>
    <DerivedField name="DrinksLastWeek_xc" dataType="double" optype="continuous">
      <Apply function="if">
        <Apply function="equal">
          <FieldRef field="missingalcohol"/>
          <Constant dataType="double">1</Constant>
        </Apply>
        <FieldRef field="NA"/>
        <Apply function="if">
          <Apply function="and">
            <Apply function="equal">
              <FieldRef field="dany"/>
              <Constant dataType="string">dany1</Constant>
            </Apply>
            <Apply function="greaterThan">
              <Apply function="+">
                <Apply function="+">
                  <Apply function="+">
                    <Apply function="+">
                      <Apply function="+">
                        <Apply function="+">
                          <FieldRef field="drk_drkm2"/>
                          <FieldRef field="drk_drkt2"/>
                        </Apply>
                        <FieldRef field="drk_drkw2"/>
                      </Apply>
                      <FieldRef field="drk_drkr2"/>
                    </Apply>
                    <FieldRef field="drk_drkf2"/>
                  </Apply>
                  <FieldRef field="drk_drksa2"/>
                </Apply>
                <FieldRef field="drk_drksu2"/>
              </Apply>
              <Constant dataType="double">53</Constant>
            </Apply>
          </Apply>
          <Constant dataType="double">53</Constant>
          <Apply function="if">
            <Apply function="equal">
              <FieldRef field="dany"/>
              <Constant dataType="string">dany1</Constant>
            </Apply>
            <Apply function="+">
              <Apply function="+">
                <Apply function="+">
                  <Apply function="+">
                    <Apply function="+">
                      <Apply function="+">
                        <FieldRef field="drk_drkm2"/>
                        <FieldRef field="drk_drkt2"/>
                      </Apply>
                      <FieldRef field="drk_drkw2"/>
                    </Apply>
                    <FieldRef field="drk_drkr2"/>
                  </Apply>
                  <FieldRef field="drk_drkf2"/>
                </Apply>
                <FieldRef field="drk_drksa2"/>
              </Apply>
              <FieldRef field="drk_drksu2"/>
            </Apply>
            <Constant dataType="double">0</Constant>
          </Apply>
        </Apply>
      </Apply>
    </DerivedField>
    <DerivedField name="DrinksLastWeek_rcs1" dataType="double" optype="continuous">
      <Apply function="-">
        <FieldRef field="DrinksLastWeek_xc"/>
        <Constant dataType="double">5.766836745</Constant>
      </Apply>
    </DerivedField>
    <DerivedField name="AgeXDrinksLastWeek_int" dataType="double" optype="continuous">
      <Apply function="*">
        <FieldRef field="Age_rcs1"/>
        <FieldRef field="DrinksLastWeek_rcs1"/>
      </Apply>
    </DerivedField>
    <DerivedField name="missingdiet" dataType="double" optype="continuous">
      <Apply function="if">
        <Apply function="or">
          <Apply function="or">
            <Apply function="or">
              <Apply function="or">
                <Apply function="or">
                  <Apply function="or">
                    <Apply function="or">
                      <Apply function="or">
                        <Apply function="or">
                          <Apply function="is.na">
                            <FieldRef field="frtu"/>
                          </Apply>
                          <Apply function="is.na">
                            <FieldRef field="frt"/>
                          </Apply>
                        </Apply>
                        <Apply function="is.na">
                          <FieldRef field="salu"/>
                        </Apply>
                      </Apply>
                      <Apply function="is.na">
                        <FieldRef field="sal"/>
                      </Apply>
                    </Apply>
                    <Apply function="is.na">
                      <FieldRef field="potu"/>
                    </Apply>
                  </Apply>
                  <Apply function="is.na">
                    <FieldRef field="pot"/>
                  </Apply>
                </Apply>
                <Apply function="is.na">
                  <FieldRef field="caru"/>
                </Apply>
              </Apply>
              <Apply function="is.na">
                <FieldRef field="car"/>
              </Apply>
            </Apply>
            <Apply function="is.na">
              <FieldRef field="vegu"/>
            </Apply>
          </Apply>
          <Apply function="is.na">
            <FieldRef field="veg"/>
          </Apply>
        </Apply>
        <Constant dataType="double">1</Constant>
        <Constant dataType="double">0</Constant>
      </Apply>
    </DerivedField>
    <DerivedField name="dpotato" dataType="double" optype="continuous">
      <Apply function="if">
        <Apply function="equal">
          <FieldRef field="missingdiet"/>
          <Constant dataType="double">1</Constant>
        </Apply>
        <FieldRef field="NA"/>
        <Apply function="if">
          <Apply function="equal">
            <FieldRef field="potu"/>
            <Constant dataType="string">potd</Constant>
          </Apply>
          <FieldRef field="pot"/>
          <Apply function="if">
            <Apply function="equal">
              <FieldRef field="potu"/>
              <Constant dataType="string">potw</Constant>
            </Apply>
            <Apply function="/">
              <FieldRef field="pot"/>
              <Constant dataType="double">7</Constant>
            </Apply>
            <Apply function="if">
              <Apply function="equal">
                <FieldRef field="potu"/>
                <Constant dataType="string">potm</Constant>
              </Apply>
              <Apply function="/">
                <FieldRef field="pot"/>
                <Constant dataType="double">30</Constant>
              </Apply>
              <Apply function="if">
                <Apply function="equal">
                  <FieldRef field="potu"/>
                  <Constant dataType="string">poty</Constant>
                </Apply>
                <Apply function="/">
                  <FieldRef field="pot"/>
                  <Constant dataType="double">365</Constant>
                </Apply>
                <Constant dataType="double">0</Constant>
              </Apply>
            </Apply>
          </Apply>
        </Apply>
      </Apply>
    </DerivedField>
    <DerivedField name="dfruit" dataType="double" optype="continuous">
      <Apply function="if">
        <Apply function="equal">
          <FieldRef field="missingdiet"/>
          <Constant dataType="double">1</Constant>
        </Apply>
        <FieldRef field="NA"/>
        <Apply function="if">
          <Apply function="equal">
            <FieldRef field="frtu"/>
            <Constant dataType="string">frtd</Constant>
          </Apply>
          <FieldRef field="frt"/>
          <Apply function="if">
            <Apply function="equal">
              <FieldRef field="frtu"/>
              <Constant dataType="string">frtw</Constant>
            </Apply>
            <Apply function="/">
              <FieldRef field="frt"/>
              <Constant dataType="double">7</Constant>
            </Apply>
            <Apply function="if">
              <Apply function="equal">
                <FieldRef field="frtu"/>
                <Constant dataType="string">frtm</Constant>
              </Apply>
              <Apply function="/">
                <FieldRef field="frt"/>
                <Constant dataType="double">30</Constant>
              </Apply>
              <Apply function="if">
                <Apply function="equal">
                  <FieldRef field="frtu"/>
                  <Constant dataType="string">frty</Constant>
                </Apply>
                <Apply function="/">
                  <FieldRef field="frt"/>
                  <Constant dataType="double">365</Constant>
                </Apply>
                <Constant dataType="double">0</Constant>
              </Apply>
            </Apply>
          </Apply>
        </Apply>
      </Apply>
    </DerivedField>
    <DerivedField name="dsalad" dataType="double" optype="continuous">
      <Apply function="if">
        <Apply function="equal">
          <FieldRef field="missingdiet"/>
          <Constant dataType="double">1</Constant>
        </Apply>
        <FieldRef field="NA"/>
        <Apply function="if">
          <Apply function="equal">
            <FieldRef field="salu"/>
            <Constant dataType="string">sald</Constant>
          </Apply>
          <FieldRef field="sal"/>
          <Apply function="if">
            <Apply function="equal">
              <FieldRef field="salu"/>
              <Constant dataType="string">salw</Constant>
            </Apply>
            <Apply function="/">
              <FieldRef field="sal"/>
              <Constant dataType="double">7</Constant>
            </Apply>
            <Apply function="if">
              <Apply function="equal">
                <FieldRef field="salu"/>
                <Constant dataType="string">salm</Constant>
              </Apply>
              <Apply function="/">
                <FieldRef field="sal"/>
                <Constant dataType="double">30</Constant>
              </Apply>
              <Apply function="if">
                <Apply function="equal">
                  <FieldRef field="salu"/>
                  <Constant dataType="string">saly</Constant>
                </Apply>
                <Apply function="/">
                  <FieldRef field="sal"/>
                  <Constant dataType="double">365</Constant>
                </Apply>
                <Constant dataType="double">0</Constant>
              </Apply>
            </Apply>
          </Apply>
        </Apply>
      </Apply>
    </DerivedField>
    <DerivedField name="dcarrot" dataType="double" optype="continuous">
      <Apply function="if">
        <Apply function="equal">
          <FieldRef field="missingdiet"/>
          <Constant dataType="double">1</Constant>
        </Apply>
        <FieldRef field="NA"/>
        <Apply function="if">
          <Apply function="equal">
            <FieldRef field="caru"/>
            <Constant dataType="string">card</Constant>
          </Apply>
          <FieldRef field="car"/>
          <Apply function="if">
            <Apply function="equal">
              <FieldRef field="caru"/>
              <Constant dataType="string">carw</Constant>
            </Apply>
            <Apply function="/">
              <FieldRef field="car"/>
              <Constant dataType="double">7</Constant>
            </Apply>
            <Apply function="if">
              <Apply function="equal">
                <FieldRef field="caru"/>
                <Constant dataType="string">carm</Constant>
              </Apply>
              <Apply function="/">
                <FieldRef field="car"/>
                <Constant dataType="double">30</Constant>
              </Apply>
              <Apply function="if">
                <Apply function="equal">
                  <FieldRef field="caru"/>
                  <Constant dataType="string">cary</Constant>
                </Apply>
                <Apply function="/">
                  <FieldRef field="car"/>
                  <Constant dataType="double">365</Constant>
                </Apply>
                <Constant dataType="double">0</Constant>
              </Apply>
            </Apply>
          </Apply>
        </Apply>
      </Apply>
    </DerivedField>
    <DerivedField name="dveg" dataType="double" optype="continuous">
      <Apply function="if">
        <Apply function="equal">
          <FieldRef field="missingdiet"/>
          <Constant dataType="double">1</Constant>
        </Apply>
        <FieldRef field="NA"/>
        <Apply function="if">
          <Apply function="equal">
            <FieldRef field="vegu"/>
            <Constant dataType="string">vegd</Constant>
          </Apply>
          <FieldRef field="veg"/>
          <Apply function="if">
            <Apply function="equal">
              <FieldRef field="vegu"/>
              <Constant dataType="string">vegw</Constant>
            </Apply>
            <Apply function="/">
              <FieldRef field="veg"/>
              <Constant dataType="double">7</Constant>
            </Apply>
            <Apply function="if">
              <Apply function="equal">
                <FieldRef field="vegu"/>
                <Constant dataType="string">vegm</Constant>
              </Apply>
              <Apply function="/">
                <FieldRef field="veg"/>
                <Constant dataType="double">30</Constant>
              </Apply>
              <Apply function="if">
                <Apply function="equal">
                  <FieldRef field="vegu"/>
                  <Constant dataType="string">vegy</Constant>
                </Apply>
                <Apply function="/">
                  <FieldRef field="veg"/>
                  <Constant dataType="double">365</Constant>
                </Apply>
                <Constant dataType="double">0</Constant>
              </Apply>
            </Apply>
          </Apply>
        </Apply>
      </Apply>
    </DerivedField>
    <DerivedField name="Potato_xc" dataType="double" optype="continuous">
      <Apply function="if">
        <Apply function="equal">
          <FieldRef field="missingdiet"/>
          <Constant dataType="double">1</Constant>
        </Apply>
        <FieldRef field="NA"/>
        <Apply function="if">
          <Apply function="greaterThan">
            <FieldRef field="dpotato"/>
            <Constant dataType="double">2</Constant>
          </Apply>
          <Constant dataType="double">2</Constant>
          <FieldRef field="dpotato"/>
        </Apply>
      </Apply>
    </DerivedField>
    <DerivedField name="Potato_rcs1" dataType="double" optype="continuous">
      <Apply function="-">
        <FieldRef field="Potato_xc"/>
        <Constant dataType="double">0.412705100247708</Constant>
      </Apply>
    </DerivedField>
    <DerivedField name="djuice" dataType="double" optype="continuous">
      <Apply function="if">
        <Apply function="or">
          <Apply function="or">
            <Apply function="equal">
              <FieldRef field="missingdiet"/>
              <Constant dataType="double">1</Constant>
            </Apply>
            <Apply function="is.na">
              <FieldRef field="juiu"/>
            </Apply>
          </Apply>
          <Apply function="is.na">
            <FieldRef field="jui"/>
          </Apply>
        </Apply>
        <FieldRef field="NA"/>
        <Apply function="if">
          <Apply function="equal">
            <FieldRef field="juiu"/>
            <Constant dataType="string">juid</Constant>
          </Apply>
          <FieldRef field="jui"/>
          <Apply function="if">
            <Apply function="equal">
              <FieldRef field="juiu"/>
              <Constant dataType="string">juiw</Constant>
            </Apply>
            <Apply function="/">
              <FieldRef field="jui"/>
              <Constant dataType="double">7</Constant>
            </Apply>
            <Apply function="if">
              <Apply function="equal">
                <FieldRef field="juiu"/>
                <Constant dataType="string">juim</Constant>
              </Apply>
              <Apply function="/">
                <FieldRef field="jui"/>
                <Constant dataType="double">30</Constant>
              </Apply>
              <Apply function="if">
                <Apply function="equal">
                  <FieldRef field="juiu"/>
                  <Constant dataType="string">juiy</Constant>
                </Apply>
                <Apply function="/">
                  <FieldRef field="jui"/>
                  <Constant dataType="double">365</Constant>
                </Apply>
                <Constant dataType="double">0</Constant>
              </Apply>
            </Apply>
          </Apply>
        </Apply>
      </Apply>
    </DerivedField>
    <DerivedField name="Juice_xc" dataType="double" optype="continuous">
      <Apply function="if">
        <Apply function="or">
          <Apply function="or">
            <Apply function="equal">
              <FieldRef field="missingdiet"/>
              <Constant dataType="double">1</Constant>
            </Apply>
            <Apply function="is.na">
              <FieldRef field="juiu"/>
            </Apply>
          </Apply>
          <Apply function="is.na">
            <FieldRef field="jui"/>
          </Apply>
        </Apply>
        <FieldRef field="NA"/>
        <Apply function="if">
          <Apply function="greaterThan">
            <FieldRef field="djuice"/>
            <Constant dataType="double">6</Constant>
          </Apply>
          <Constant dataType="double">6</Constant>
          <FieldRef field="djuice"/>
        </Apply>
      </Apply>
    </DerivedField>
    <DerivedField name="Juice_cont" dataType="double" optype="continuous">
      <Apply function="-">
        <FieldRef field="Juice_xc"/>
        <Constant dataType="double">0.918177968793005</Constant>
      </Apply>
    </DerivedField>
    <DerivedField name="FruitVeg_xc" dataType="double" optype="continuous">
      <Apply function="if">
        <Apply function="equal">
          <FieldRef field="missingdiet"/>
          <Constant dataType="double">1</Constant>
        </Apply>
        <FieldRef field="NA"/>
        <Apply function="if">
          <Apply function="greaterThan">
            <Apply function="+">
              <Apply function="+">
                <Apply function="+">
                  <Apply function="+">
                    <FieldRef field="dfruit"/>
                    <FieldRef field="dsalad"/>
                  </Apply>
                  <FieldRef field="dpotato"/>
                </Apply>
                <FieldRef field="dcarrot"/>
              </Apply>
              <FieldRef field="dveg"/>
            </Apply>
            <Constant dataType="double">12</Constant>
          </Apply>
          <Constant dataType="double">12</Constant>
          <Apply function="+">
            <Apply function="+">
              <Apply function="+">
                <Apply function="+">
                  <FieldRef field="dfruit"/>
                  <FieldRef field="dsalad"/>
                </Apply>
                <FieldRef field="dpotato"/>
              </Apply>
              <FieldRef field="dcarrot"/>
            </Apply>
            <FieldRef field="dveg"/>
          </Apply>
        </Apply>
      </Apply>
    </DerivedField>
    <DerivedField name="FruitVeg_rcs1" dataType="double" optype="continuous">
      <Apply function="-">
        <FieldRef field="FruitVeg_xc"/>
        <Constant dataType="double">3.00514047382127</Constant>
      </Apply>
    </DerivedField>
    <DerivedField name="AgeXFruitVeg_int" dataType="double" optype="continuous">
      <Apply function="*">
        <FieldRef field="Age_rcs1"/>
        <FieldRef field="FruitVeg_rcs1"/>
      </Apply>
    </DerivedField>
    <DerivedField name="AgeXPotato_int" dataType="double" optype="continuous">
      <Apply function="*">
        <FieldRef field="Age_rcs1"/>
        <FieldRef field="Potato_rcs1"/>
      </Apply>
    </DerivedField>
    <DerivedField name="AgeXJuice_int" dataType="double" optype="continuous">
      <Apply function="*">
        <FieldRef field="Age_rcs1"/>
        <FieldRef field="Juice_cont"/>
      </Apply>
    </DerivedField>
    <DerivedField name="Diabetes_xc" dataType="double" optype="continuous">
      <Apply function="if">
        <Apply function="is.na">
          <FieldRef field="diab"/>
        </Apply>
        <FieldRef field="NA"/>
        <Apply function="if">
          <Apply function="equal">
            <FieldRef field="diab"/>
            <Constant dataType="string">diab1</Constant>
          </Apply>
          <Constant dataType="double">1</Constant>
          <Constant dataType="double">0</Constant>
        </Apply>
      </Apply>
    </DerivedField>
    <DerivedField name="Diabetes_cat" dataType="double" optype="continuous">
      <Apply function="-">
        <FieldRef field="Diabetes_xc"/>
        <Constant dataType="double">0.0633878855884657</Constant>
      </Apply>
    </DerivedField>
    <DerivedField name="AgeXDiabetes_int" dataType="double" optype="continuous">
      <Apply function="*">
        <FieldRef field="Age_rcs1"/>
        <FieldRef field="Diabetes_cat"/>
      </Apply>
    </DerivedField>
    <DerivedField name="Hypertension_xc" dataType="double" optype="continuous">
      <Apply function="if">
        <Apply function="is.na">
          <FieldRef field="hd"/>
        </Apply>
        <FieldRef field="NA"/>
        <Apply function="if">
          <Apply function="equal">
            <FieldRef field="hd"/>
            <Constant dataType="string">hd1</Constant>
          </Apply>
          <Constant dataType="double">1</Constant>
          <Constant dataType="double">0</Constant>
        </Apply>
      </Apply>
    </DerivedField>
    <DerivedField name="Hypertension_cat" dataType="double" optype="continuous">
      <Apply function="-">
        <FieldRef field="Hypertension_xc"/>
        <Constant dataType="double">0.1725489</Constant>
      </Apply>
    </DerivedField>
    <DerivedField name="AgeXHypertension_int" dataType="double" optype="continuous">
      <Apply function="*">
        <FieldRef field="Age_rcs1"/>
        <FieldRef field="Hypertension_cat"/>
      </Apply>
    </DerivedField>
    <DerivedField name="missingbmi" dataType="double" optype="continuous">
      <Apply function="if">
        <Apply function="or">
          <Apply function="or">
            <Apply function="is.na">
              <FieldRef field="weightlb"/>
            </Apply>
            <Apply function="is.na">
              <FieldRef field="heightin_hft"/>
            </Apply>
          </Apply>
          <Apply function="is.na">
            <FieldRef field="heightin_hin"/>
          </Apply>
        </Apply>
        <Constant dataType="double">1</Constant>
        <Constant dataType="double">0</Constant>
      </Apply>
    </DerivedField>
    <DerivedField name="weightkg" dataType="double" optype="continuous">
      <Apply function="/">
        <FieldRef field="weightlb"/>
        <Constant dataType="double">2.2046226218</Constant>
      </Apply>
    </DerivedField>
    <DerivedField name="heightm" dataType="double" optype="continuous">
      <Apply function="/">
        <Apply function="+">
          <Apply function="*">
            <FieldRef field="heightin_hft"/>
            <Constant dataType="double">12</Constant>
          </Apply>
          <FieldRef field="heightin_hin"/>
        </Apply>
        <Constant dataType="double">39.3701</Constant>
      </Apply>
    </DerivedField>
    <DerivedField name="BMI_xc" dataType="double" optype="continuous">
      <Apply function="if">
        <Apply function="equal">
          <FieldRef field="missingbmi"/>
          <Constant dataType="double">1</Constant>
        </Apply>
        <FieldRef field="NA"/>
        <Apply function="/">
          <FieldRef field="weightkg"/>
          <Apply function="*">
            <FieldRef field="heightm"/>
            <FieldRef field="heightm"/>
          </Apply>
        </Apply>
      </Apply>
    </DerivedField>
    <DerivedField name="BMI_rcs1" dataType="double" optype="continuous">
      <Apply function="-">
        <FieldRef field="BMI_xc"/>
        <Constant dataType="double">26.738600162499</Constant>
      </Apply>
    </DerivedField>
    <DerivedField name="AgeXBMI_int" dataType="double" optype="continuous">
      <Apply function="*">
        <FieldRef field="Age_rcs1"/>
        <FieldRef field="BMI_rcs1"/>
      </Apply>
    </DerivedField>
    <DerivedField name="SurveyCycle2_xc" dataType="double" optype="continuous">
      <Constant dataType="double">0.247306355947075</Constant>
    </DerivedField>
    <DerivedField name="SurveyCycle2_cat" dataType="double" optype="continuous">
      <Apply function="-">
        <FieldRef field="SurveyCycle2_xc"/>
        <Constant dataType="double">0.24739059555819</Constant>
      </Apply>
    </DerivedField>
    <DerivedField name="SurveyCycle3_xc" dataType="double" optype="continuous">
      <Constant dataType="double">0.24848208331871</Constant>
    </DerivedField>
    <DerivedField name="SurveyCycle3_cat" dataType="double" optype="continuous">
      <Apply function="-">
        <FieldRef field="SurveyCycle3_xc"/>
        <Constant dataType="double">0.248491520758792</Constant>
      </Apply>
    </DerivedField>
    <DerivedField name="SurveyCycle4_xc" dataType="double" optype="continuous">
      <Constant dataType="double">0.25973046011301</Constant>
    </DerivedField>
    <DerivedField name="SurveyCycle4_cat" dataType="double" optype="continuous">
      <Apply function="-">
        <FieldRef field="SurveyCycle4_xc"/>
        <Constant dataType="double">0.257595325302225</Constant>
      </Apply>
    </DerivedField>
  </LocalTransformations>
  <GeneralRegressionModel modelType="CoxRegression" modelName="CVDPoRT_malemodel" functionName="regression" algorithmName="coxph" endTimeVariable="ttcvd_dec12_year" statusVariable="censor_cvd_dec12" baselineHazard="0.57">
    <MiningSchema>
      <MiningField name="survival" usageType="predicted"/>
      <MiningField name="Age_rcs1" usageType="active"/>
      <MiningField name="Age_rcs2" usageType="active"/>
      <MiningField name="Age_rcs3" usageType="active"/>
      <MiningField name="Age_rcs4" usageType="active"/>
      <MiningField name="Packyears_rcs1" usageType="active"/>
      <MiningField name="Packyears_rcs2" usageType="active"/>
      <MiningField name="SmokeFormer5plus_cat" usageType="active"/>
      <MiningField name="SmokeFormer0to5_cat" usageType="active"/>
      <MiningField name="SmokeCurrent_cat" usageType="active"/>
      <MiningField name="AgeXPackyears_int" usageType="active"/>
      <MiningField name="AgeXSmokeFormer5plus_int" usageType="active"/>
      <MiningField name="AgeXSmokeFormer0to5_int" usageType="active"/>
      <MiningField name="AgeXSmokeCurrent_int" usageType="active"/>
      <MiningField name="DrinksLastWeek_rcs1" usageType="active"/>
      <MiningField name="DrinksLastWeek_rcs2" usageType="active"/>
      <MiningField name="AgeXDrinksLastWeek_int" usageType="active"/>
      <MiningField name="FruitVeg_rcs1" usageType="active"/>
      <MiningField name="FruitVeg_rcs2" usageType="active"/>
      <MiningField name="Potato_rcs1" usageType="active"/>
      <MiningField name="Potato_rcs2" usageType="active"/>
      <MiningField name="Juice_cont" usageType="active"/>
      <MiningField name="AgeXFruitVeg_int" usageType="active"/>
      <MiningField name="AgeXPotato_int" usageType="active"/>
      <MiningField name="AgeXJuice_int" usageType="active"/>
      <MiningField name="BMI_rcs1" usageType="active"/>
      <MiningField name="BMI_rcs2" usageType="active"/>
      <MiningField name="EduHSGrad2_cat" usageType="active"/>
      <MiningField name="EduSomePS2_cat" usageType="active"/>
      <MiningField name="EduPSGrad2_cat" usageType="active"/>
      <MiningField name="AgeXBMI_int" usageType="active"/>
      <MiningField name="Diabetes_cat" usageType="active"/>
      <MiningField name="AgeXDiabetes_int" usageType="active"/>
      <MiningField name="Hypertension_cat" usageType="active"/>
      <MiningField name="AgeXHypertension_int" usageType="active"/>
      <MiningField name="SurveyCycle2_cat" usageType="active"/>
      <MiningField name="SurveyCycle3_cat" usageType="active"/>
      <MiningField name="SurveyCycle4_cat" usageType="active"/>
      <MiningField name="ttcvd_dec12_year" usageType="active"/>
      <MiningField name="censor_cvd_dec12" usageType="active"/>
    </MiningSchema>
    <Output>
      <OutputField name="Predicted_survival" feature="predictedValue"/>
      <OutputField name="cumulativeHazard" feature="transformedValue">
        <Apply function="*">
          <Constant>-1.0</Constant>
          <Apply function="ln">
            <FieldRef field="Predicted_survival"/>
          </Apply>
        </Apply>
      </OutputField>
    </Output>
    <ParameterList>
      <Parameter name="p0" label="Age_rcs1" referencePoint="-1.17532490631324e-12"/>
      <Parameter name="p1" label="Age_rcs2" referencePoint="11.8606801709774"/>
      <Parameter name="p2" label="Age_rcs3" referencePoint="3.79490766463087"/>
      <Parameter name="p3" label="Age_rcs4" referencePoint="1.13336772506441"/>
      <Parameter name="p4" label="Packyears_rcs1" referencePoint="-7.38757298207009e-13"/>
      <Parameter name="p5" label="Packyears_rcs2" referencePoint="1.68870972794152"/>
      <Parameter name="p6" label="SmokeFormer5plus_cat" referencePoint="-1.38527194688192e-15"/>
      <Parameter name="p7" label="SmokeFormer0to5_cat" referencePoint="3.42610505136119e-15"/>
      <Parameter name="p8" label="SmokeCurrent_cat" referencePoint="-8.26150440539722e-17"/>
      <Parameter name="p9" label="AgeXPackyears_int" referencePoint="110.812423663972"/>
      <Parameter name="p10" label="AgeXSmokeFormer5plus_int" referencePoint="2.66857554778381"/>
      <Parameter name="p11" label="AgeXSmokeFormer0to5_int" referencePoint="-0.367904074610048"/>
      <Parameter name="p12" label="AgeXSmokeCurrent_int" referencePoint="-1.39449920930313"/>
      <Parameter name="p13" label="DrinksLastWeek_rcs1" referencePoint="6.51265903968999e-14"/>
      <Parameter name="p14" label="DrinksLastWeek_rcs2" referencePoint="1.1909369886671"/>
      <Parameter name="p15" label="AgeXDrinksLastWeek_int" referencePoint="-10.9913008111831"/>
      <Parameter name="p16" label="FruitVeg_rcs1" referencePoint="-9.19952333705753e-15"/>
      <Parameter name="p17" label="FruitVeg_rcs2" referencePoint="0.87347883917844"/>
      <Parameter name="p18" label="Potato_rcs1" referencePoint="1.43470581818142e-15"/>
      <Parameter name="p19" label="Potato_rcs2" referencePoint="0.0873878645288297"/>
      <Parameter name="p20" label="Juice_cont" referencePoint="2.3192197708873e-15"/>
      <Parameter name="p21" label="AgeXFruitVeg_int" referencePoint="3.06552406988913"/>
      <Parameter name="p22" label="AgeXPotato_int" referencePoint="1.43576762986946"/>
      <Parameter name="p23" label="AgeXJuice_int" referencePoint="-1.61959827528469"/>
      <Parameter name="p24" label="BMI_rcs1" referencePoint="-1.56962354813814e-15"/>
      <Parameter name="p25" label="BMI_rcs2" referencePoint="2.33233618583527"/>
      <Parameter name="p26" label="EduHSGrad2_cat" referencePoint="-3.26165298671386e-15"/>
      <Parameter name="p27" label="EduSomePS2_cat" referencePoint="-5.9345326061924e-16"/>
      <Parameter name="p28" label="EduPSGrad2_cat" referencePoint="-1.90119787275382e-15"/>
      <Parameter name="p29" label="AgeXBMI_int" referencePoint="3.04278264654622"/>
      <Parameter name="p30" label="Diabetes_cat" referencePoint="1.53843990948462e-14"/>
      <Parameter name="p31" label="AgeXDiabetes_int" referencePoint="0.843053300180565"/>
      <Parameter name="p32" label="Hypertension_cat" referencePoint="-4.62586071232002e-15"/>
      <Parameter name="p33" label="AgeXHypertension_int" referencePoint="2.00503270281763"/>
      <Parameter name="p34" label="SurveyCycle2_cat" referencePoint="-1.40908310808893e-14"/>
      <Parameter name="p35" label="SurveyCycle3_cat" referencePoint="2.23807333425989e-14"/>
      <Parameter name="p36" label="SurveyCycle4_cat" referencePoint="-1.80723181898812e-13"/>
    </ParameterList>
    <FactorList/>
    <CovariateList>
      <Predictor name="Age_rcs1" />
      <Predictor name="Age_rcs2"/>
      <Predictor name="Age_rcs3"/>
      <Predictor name="Age_rcs4"/>
      <Predictor name="Packyears_rcs1" />
      <Predictor name="packyears_rcs2"/>
      <Predictor name="SmokeFormer5plus_cat"/>
      <Predictor name="SmokeFormer0to5_cat"/>
      <Predictor name="SmokeCurrent_cat"/>
      <Predictor name="AgeXPackyears_int"/>
      <Predictor name="AgeXSmokeFormer5plus_int"/>
      <Predictor name="AgeXSmokeFormer0to5_int"/>
      <Predictor name="AgeXSmokeCurrent_int"/>
      <Predictor name="DrinksLastWeek_rcs1" />
      <Predictor name="Drinks_last_week_rcs2"/>
      <Predictor name="AgeXDrinksLastWeek_int"/>
      <Predictor name="FruitVeg_rcs1"/>
      <Predictor name="FruitVeg_rcs2"/>
      <Predictor name="Potato_rcs1"/>
      <Predictor name="Potato_rcs2"/>
      <Predictor name="Juice_cont"/>
      <Predictor name="AgeXFruitVeg_int"/>
      <Predictor name="AgeXPotato_int"/>
      <Predictor name="AgeXJuice_int"/>
      <Predictor name="BMI_rcs1"/>
      <Predictor name="BMI_rcs2"/>
      <Predictor name="EduHSGrad2_cat"/>
      <Predictor name="EduSomePS2_cat"/>
      <Predictor name="EduPSGrad2_cat"/>
      <Predictor name="AgeXBMI_int"/>
      <Predictor name="diabetes_cat"/>
      <Predictor name="AgeXDiabetes_int"/>
      <Predictor name="hypertension_cat"/>
      <Predictor name="AgeXHypertension_int"/>
      <Predictor name="SurveyCycle2_cat"/>
      <Predictor name="SurveyCycle3_cat"/>
      <Predictor name="SurveyCycle4_cat"/>
    </CovariateList>
    <PPMatrix>
      <PPCell value="1" predictorName="Age_rcs1" parameterName="p0"/>
      <PPCell value="1" predictorName="Age_rcs2" parameterName="p1"/>
      <PPCell value="1" predictorName="Age_rcs3" parameterName="p2"/>
      <PPCell value="1" predictorName="Age_rcs4" parameterName="p3"/>
      <PPCell value="1" predictorName="Packyears_rcs1" parameterName="p4"/>
      <PPCell value="1" predictorName="Packyears_rcs2" parameterName="p5"/>
      <PPCell value="1" predictorName="SmokeFormer5plus_cat" parameterName="p6"/>
      <PPCell value="1" predictorName="SmokeFormer0to5_cat" parameterName="p7"/>
      <PPCell value="1" predictorName="SmokeCurrent_cat" parameterName="p8"/>
      <PPCell value="1" predictorName="AgeXPackyears_int" parameterName="p9"/>
      <PPCell value="1" predictorName="AgeXSmokeFormer5plus_int" parameterName="p10"/>
      <PPCell value="1" predictorName="AgeXSmokeFormer0to5_int" parameterName="p11"/>
      <PPCell value="1" predictorName="AgeXSmokeCurrent_int" parameterName="p12"/>
      <PPCell value="1" predictorName="DrinksLastWeek_rcs1" parameterName="p13"/>
      <PPCell value="1" predictorName="DrinksLastWeek_rcs2" parameterName="p14"/>
      <PPCell value="1" predictorName="AgeXDrinksLastWeek_int" parameterName="p15"/>
      <PPCell value="1" predictorName="FruitVeg_rcs1" parameterName="p16"/>
      <PPCell value="1" predictorName="FruitVeg_rcs2" parameterName="p17"/>
      <PPCell value="1" predictorName="Potato_rcs1" parameterName="p18"/>
      <PPCell value="1" predictorName="Potato_rcs2" parameterName="p19"/>
      <PPCell value="1" predictorName="Juice_cont" parameterName="p20"/>
      <PPCell value="1" predictorName="AgeXFruitVeg_int" parameterName="p21"/>
      <PPCell value="1" predictorName="AgeXPotato_int" parameterName="p22"/>
      <PPCell value="1" predictorName="AgeXJuice_int" parameterName="p23"/>
      <PPCell value="1" predictorName="BMI_rcs1" parameterName="p24"/>
      <PPCell value="1" predictorName="BMI_rcs2" parameterName="p25"/>
      <PPCell value="1" predictorName="EduHSGrad2_cat" parameterName="p26"/>
      <PPCell value="1" predictorName="EduSomePS2_cat" parameterName="p27"/>
      <PPCell value="1" predictorName="EduPSGrad2_cat" parameterName="p28"/>
      <PPCell value="1" predictorName="AgeXBMI_int" parameterName="p29"/>
      <PPCell value="1" predictorName="Diabetes_cat" parameterName="p30"/>
      <PPCell value="1" predictorName="AgeXDiabetes_int" parameterName="p31"/>
      <PPCell value="1" predictorName="Hypertension_cat" parameterName="p32"/>
      <PPCell value="1" predictorName="AgeXHypertension_int" parameterName="p33"/>
      <PPCell value="1" predictorName="SurveyCycle2_cat" parameterName="p34"/>
      <PPCell value="1" predictorName="SurveyCycle3_cat" parameterName="p35"/>
      <PPCell value="1" predictorName="SurveyCycle4_cat" parameterName="p36"/>
    </PPMatrix>
    <ParamMatrix>
      <PCell parameterName="p0" df="1" beta="0.2022114164395"/>
      <PCell parameterName="p1" df="1" beta="-0.27529830694182"/>
      <PCell parameterName="p2" df="1" beta="0.3465410139152"/>
      <PCell parameterName="p3" df="1" beta="0.16631552330612"/>
      <PCell parameterName="p4" df="1" beta="0.01039090149634"/>
      <PCell parameterName="p5" df="1" beta="-0.03343357669833"/>
      <PCell parameterName="p6" df="1" beta="-0.00704806596193"/>
      <PCell parameterName="p7" df="1" beta="0.24283913933164"/>
      <PCell parameterName="p8" df="1" beta="0.75158645797105"/>
      <PCell parameterName="p9" df="1" beta="-0.00019806811853"/>
      <PCell parameterName="p10" df="1" beta="0.00163028758301"/>
      <PCell parameterName="p11" df="1" beta="-0.00653158888451"/>
      <PCell parameterName="p12" df="1" beta="-0.01506212911735"/>
      <PCell parameterName="p13" df="1" beta="-0.04455563788085"/>
      <PCell parameterName="p14" df="1" beta="0.10171426828576"/>
      <PCell parameterName="p15" df="1" beta="0.0003190018618"/>
      <PCell parameterName="p16" df="1" beta="-0.1668611278321"/>
      <PCell parameterName="p17" df="1" beta="0.12350321867252"/>
      <PCell parameterName="p18" df="1" beta="0.58852699513957"/>
      <PCell parameterName="p19" df="1" beta="-0.6174644587747"/>
      <PCell parameterName="p20" df="1" beta="0.07729560105404"/>
      <PCell parameterName="p21" df="1" beta="0.00142118356551"/>
      <PCell parameterName="p22" df="1" beta="-0.00593537906884"/>
      <PCell parameterName="p23" df="1" beta="-0.0036818003964"/>
      <PCell parameterName="p24" df="1" beta="0.07432916644619"/>
      <PCell parameterName="p25" df="1" beta="-0.05034763017905"/>
      <PCell parameterName="p26" df="1" beta="-0.05171640641572"/>
      <PCell parameterName="p27" df="1" beta="0.00201680013723"/>
      <PCell parameterName="p28" df="1" beta="-0.21561924002943"/>
      <PCell parameterName="p29" df="1" beta="-0.00099187035896"/>
      <PCell parameterName="p30" df="1" beta="0.57126838215964"/>
      <PCell parameterName="p31" df="1" beta="-0.01270671267705"/>
      <PCell parameterName="p32" df="1" beta="0.46882259407408"/>
      <PCell parameterName="p33" df="1" beta="-0.01642426066769"/>
      <PCell parameterName="p34" df="1" beta="-0.0796787879504"/>
      <PCell parameterName="p35" df="1" beta="-0.12573893911228"/>
      <PCell parameterName="p36" df="1" beta="-0.42295385951024"/>
    </ParamMatrix>
  </GeneralRegressionModel>
  <CustomPMML>
    <RestrictedCubicSpline>
      <PCell parameterName="p1, p2, p3" knotLocations="-24.98064912, -11.98064912, -1.980649122, 11.01935088, 29.01935088"/>
      <PCell parameterName="p5" knotLocations="-13.18715513, -10.18715513, 26.81284487"/>
      <PCell parameterName="p14" knotLocations="-5.766836745, -3.766836745, 10.23316325"/>
      <PCell parameterName="p17" knotLocations="-2.005140474, -0.405140474, 2.394859526"/>
      <PCell parameterName="p19" knotLocations="-0.3127051, -0.1127051, 0.5872949"/>
      <PCell parameterName="p25" knotLocations="-4.773158473, -0.438600162, 5.335843968"/>
    </RestrictedCubicSpline>
  </CustomPMML>
</PMML>